digraph Tree {
node [shape=box] ;
0 [label="X[2] <= 8.5\ngini = 0.375\nsamples = 56\nvalue = [42, 14]"] ;
1 [label="X[0] <= 93.0\ngini = 0.48\nsamples = 15\nvalue = [6, 9]"] ;
0 -> 1 [labeldistance=2.5, labelangle=45, headlabel="True"] ;
2 [label="X[1] <= 4.5\ngini = 0.469\nsamples = 8\nvalue = [5, 3]"] ;
1 -> 2 ;
3 [label="gini = 0.0\nsamples = 3\nvalue = [3, 0]"] ;
2 -> 3 ;
4 [label="X[0] <= 35.0\ngini = 0.48\nsamples = 5\nvalue = [2, 3]"] ;
2 -> 4 ;
5 [label="X[1] <= 6.0\ngini = 0.444\nsamples = 3\nvalue = [2, 1]"] ;
4 -> 5 ;
6 [label="gini = 0.0\nsamples = 2\nvalue = [2, 0]"] ;
5 -> 6 ;
7 [label="gini = 0.0\nsamples = 1\nvalue = [0, 1]"] ;
5 -> 7 ;
8 [label="gini = 0.0\nsamples = 2\nvalue = [0, 2]"] ;
4 -> 8 ;
9 [label="X[0] <= 141.0\ngini = 0.245\nsamples = 7\nvalue = [1, 6]"] ;
1 -> 9 ;
10 [label="gini = 0.0\nsamples = 6\nvalue = [0, 6]"] ;
9 -> 10 ;
11 [label="gini = 0.0\nsamples = 1\nvalue = [1, 0]"] ;
9 -> 11 ;
12 [label="X[2] <= 14.5\ngini = 0.214\nsamples = 41\nvalue = [36, 5]"] ;
0 -> 12 [labeldistance=2.5, labelangle=-45, headlabel="False"] ;
13 [label="X[0] <= 55.0\ngini = 0.351\nsamples = 22\nvalue = [17, 5]"] ;
12 -> 13 ;
14 [label="gini = 0.0\nsamples = 8\nvalue = [8, 0]"] ;
13 -> 14 ;
15 [label="X[0] <= 157.5\ngini = 0.459\nsamples = 14\nvalue = [9, 5]"] ;
13 -> 15 ;
16 [label="X[0] <= 135.0\ngini = 0.494\nsamples = 9\nvalue = [4, 5]"] ;
15 -> 16 ;
17 [label="X[0] <= 95.5\ngini = 0.49\nsamples = 7\nvalue = [4, 3]"] ;
16 -> 17 ;
18 [label="X[2] <= 11.0\ngini = 0.375\nsamples = 4\nvalue = [1, 3]"] ;
17 -> 18 ;
19 [label="gini = 0.0\nsamples = 1\nvalue = [1, 0]"] ;
18 -> 19 ;
20 [label="gini = 0.0\nsamples = 3\nvalue = [0, 3]"] ;
18 -> 20 ;
21 [label="gini = 0.0\nsamples = 3\nvalue = [3, 0]"] ;
17 -> 21 ;
22 [label="gini = 0.0\nsamples = 2\nvalue = [0, 2]"] ;
16 -> 22 ;
23 [label="gini = 0.0\nsamples = 5\nvalue = [5, 0]"] ;
15 -> 23 ;
24 [label="gini = 0.0\nsamples = 19\nvalue = [19, 0]"] ;
12 -> 24 ;
}